Language model created by QuickLM on Thu Sep 26 18:27:02 EDT 2019
Copyright (c) 1996-2010 Carnegie Mellon University and Alexander I. Rudnicky

The model is in standard ARPA format, designed by Doug Paul while he was at MITRE.

The code that was used to produce this language model is available in Open Source.
Please visit http://www.speech.cs.cmu.edu/tools/ for more information

The (fixed) discount mass is 0.5. The backoffs are computed using the ratio method.
This model based on a corpus of 71 sentences and 86 words

\data\
ngram 1=86
ngram 2=161
ngram 3=114

\1-grams:
-0.9016 </s> -0.3010
-0.9016 <s> -0.2375
-1.9077 A -0.2956
-2.7528 ARE -0.2956
-2.7528 BRIEF -0.2948
-2.7528 BY -0.2428
-2.4518 CALCULATOR -0.2428
-2.0538 CAN -0.2956
-2.7528 CLOSE -0.2428
-2.4518 COIN -0.2428
-2.7528 DIVIDED -0.3003
-2.7528 DO -0.2956
-2.7528 DOES -0.2428
-2.7528 EIGHT -0.2428
-2.7528 EIGHTEEN -0.2428
-2.7528 EIGHTY -0.2428
-2.7528 ELEVEN -0.2428
-2.7528 ERLE -0.2428
-2.7528 FIFTEEN -0.2428
-2.7528 FIFTY -0.2428
-2.7528 FIVE -0.2428
-2.4518 FLIP -0.2894
-2.7528 FORTY -0.2428
-2.7528 FOUR -0.2428
-2.7528 FOURTEEN -0.2428
-2.7528 GET -0.2428
-2.1508 GIVE -0.2948
-2.7528 HAPPENING -0.3003
-2.7528 HEADLINE -0.2428
-2.7528 HELLO -0.2428
-2.7528 HEY -0.3003
-2.7528 HOURS -0.2428
-2.7528 HOW -0.3003
-2.7528 HUNDRED -0.2428
-2.7528 IN -0.2948
-2.0538 IS -0.2348
-2.7528 KNOW -0.2428
-2.7528 LEHIGH -0.2428
-2.7528 LISTENING -0.2428
-1.8497 ME -0.2894
-2.7528 MINUS -0.2428
-2.7528 MONTELLA -0.2428
-2.7528 MORE -0.2428
-2.2757 NEWS -0.2428
-2.7528 NEXT -0.3003
-2.7528 NINE -0.2428
-2.7528 NINETEEN -0.2428
-2.7528 NINETY -0.2428
-2.4518 NUMBER -0.2428
-2.7528 OFFICE -0.3003
-2.7528 ONE -0.2428
-2.2757 OPEN -0.2348
-2.7528 PACKARD -0.2428
-2.7528 PLUS -0.2428
-2.7528 PROFESSOR -0.2428
-2.4518 RANDOM -0.2995
-2.7528 ROOT -0.2428
-2.2757 SET -0.2894
-2.7528 SEVEN -0.2428
-2.7528 SEVENTEEN -0.2428
-2.7528 SEVENTY -0.2428
-2.7528 SIX -0.2428
-2.7528 SIXTEEN -0.2428
-2.7528 SIXTY -0.2428
-2.7528 SQUARE -0.3003
-2.7528 STEPS -0.2428
-2.4518 STOP -0.2419
-2.7528 TAYLOR -0.2428
-2.7528 TEN -0.2428
-1.8497 THE -0.2941
-2.7528 THIRTEEN -0.2428
-2.7528 THIRTY -0.2428
-2.7528 THREE -0.2428
-2.4518 TIME -0.2428
-2.2757 TIMER -0.2428
-2.7528 TIMES -0.2428
-2.7528 TWELVE -0.2428
-2.7528 TWENTY -0.2428
-2.7528 TWO -0.2428
-2.7528 UNTIL -0.2428
-2.4518 WEATHER -0.2428
-2.2757 WHAT -0.2972
-2.7528 WHATS -0.3003
-2.2757 WHEN -0.2964
-2.7528 WILLIAMS -0.2428
-1.9077 YOU -0.2340

\2-grams:
-2.1523 <s> BRIEF 0.0000
-2.1523 <s> CALCULATOR 0.0000
-1.4533 <s> CAN 0.0000
-2.1523 <s> CLOSE 0.0000
-2.1523 <s> DIVIDED 0.0000
-2.1523 <s> DO 0.0000
-2.1523 <s> EIGHT 0.0000
-2.1523 <s> EIGHTEEN 0.0000
-2.1523 <s> EIGHTY 0.0000
-2.1523 <s> ELEVEN 0.0000
-2.1523 <s> ERLE 0.0000
-2.1523 <s> FIFTEEN 0.0000
-2.1523 <s> FIFTY 0.0000
-2.1523 <s> FIVE 0.0000
-2.1523 <s> FLIP -0.1761
-2.1523 <s> FORTY 0.0000
-2.1523 <s> FOUR 0.0000
-2.1523 <s> FOURTEEN 0.0000
-2.1523 <s> GET 0.0000
-2.1523 <s> GIVE 0.0000
-2.1523 <s> HELLO 0.0000
-2.1523 <s> HEY 0.0000
-2.1523 <s> HOW 0.0000
-2.1523 <s> HUNDRED 0.0000
-2.1523 <s> MINUS 0.0000
-2.1523 <s> MONTELLA 0.0000
-2.1523 <s> MORE 0.0000
-2.1523 <s> NEXT 0.0000
-2.1523 <s> NINE 0.0000
-2.1523 <s> NINETEEN 0.0000
-2.1523 <s> NINETY 0.0000
-2.1523 <s> OFFICE 0.0000
-2.1523 <s> ONE 0.0000
-1.6752 <s> OPEN 0.0000
-2.1523 <s> PACKARD 0.0000
-2.1523 <s> PLUS 0.0000
-1.8513 <s> SET 0.0000
-2.1523 <s> SEVEN 0.0000
-2.1523 <s> SEVENTEEN 0.0000
-2.1523 <s> SEVENTY 0.0000
-2.1523 <s> SIX 0.0000
-2.1523 <s> SIXTEEN 0.0000
-2.1523 <s> SIXTY 0.0000
-2.1523 <s> SQUARE 0.0000
-2.1523 <s> STEPS 0.0000
-1.8513 <s> STOP 0.0000
-2.1523 <s> TAYLOR 0.0000
-2.1523 <s> TEN 0.0000
-2.1523 <s> THIRTEEN 0.0000
-2.1523 <s> THIRTY 0.0000
-2.1523 <s> THREE 0.0000
-2.1523 <s> TIMES 0.0000
-2.1523 <s> TWELVE 0.0000
-2.1523 <s> TWENTY 0.0000
-2.1523 <s> TWO 0.0000
-1.6752 <s> WHAT 0.0000
-2.1523 <s> WHATS 0.0000
-1.6752 <s> WHEN 0.0000
-2.1523 <s> WILLIAMS 0.0000
-0.8451 A COIN 0.0000
-0.8451 A RANDOM 0.0000
-0.6690 A TIMER 0.0000
-0.3010 ARE YOU -0.2688
-0.3010 BRIEF ME -0.2109
-0.3010 BY </s> -0.3010
-0.3010 CALCULATOR </s> -0.3010
-0.3010 CAN YOU -0.1091
-0.3010 CLOSE </s> -0.3010
-0.3010 COIN </s> -0.3010
-0.3010 DIVIDED BY 0.0000
-0.3010 DO YOU -0.2688
-0.3010 DOES </s> -0.3010
-0.3010 EIGHT </s> -0.3010
-0.3010 EIGHTEEN </s> -0.3010
-0.3010 EIGHTY </s> -0.3010
-0.3010 ELEVEN </s> -0.3010
-0.3010 ERLE </s> -0.3010
-0.3010 FIFTEEN </s> -0.3010
-0.3010 FIFTY </s> -0.3010
-0.3010 FIVE </s> -0.3010
-0.6021 FLIP A -0.2341
-0.6021 FLIP ME -0.1383
-0.3010 FORTY </s> -0.3010
-0.3010 FOUR </s> -0.3010
-0.3010 FOURTEEN </s> -0.3010
-0.3010 GET </s> -0.3010
-0.3010 GIVE ME 0.0000
-0.3010 HAPPENING IN 0.0000
-0.3010 HEADLINE </s> -0.3010
-0.3010 HELLO </s> -0.3010
-0.3010 HEY LEHIGH 0.0000
-0.3010 HOURS </s> -0.3010
-0.3010 HOW ARE 0.0000
-0.3010 HUNDRED </s> -0.3010
-0.3010 IN THE -0.2109
-1.0000 IS </s> -0.3010
-1.0000 IS PROFESSOR 0.0000
-0.5229 IS THE -0.0512
-0.3010 KNOW </s> -0.3010
-0.3010 LEHIGH </s> -0.3010
-0.3010 LISTENING </s> -0.3010
-0.5051 ME A 0.0000
-0.7270 ME THE -0.0512
-0.3010 MINUS </s> -0.3010
-0.3010 MONTELLA </s> -0.3010
-0.3010 MORE </s> -0.3010
-0.3010 NEWS </s> -0.3010
-0.3010 NEXT HEADLINE 0.0000
-0.3010 NINE </s> -0.3010
-0.3010 NINETEEN </s> -0.3010
-0.3010 NINETY </s> -0.3010
-0.3010 NUMBER </s> -0.3010
-0.3010 OFFICE HOURS 0.0000
-0.3010 ONE </s> -0.3010
-0.7782 OPEN </s> -0.3010
-0.7782 OPEN THE -0.2730
-0.7782 OPEN UNTIL 0.0000
-0.3010 PACKARD </s> -0.3010
-0.3010 PLUS </s> -0.3010
-0.3010 PROFESSOR </s> -0.3010
-0.3010 RANDOM NUMBER 0.0000
-0.3010 ROOT </s> -0.3010
-0.7782 SET A -0.1963
-0.4771 SET ME -0.1383
-0.3010 SEVEN </s> -0.3010
-0.3010 SEVENTEEN </s> -0.3010
-0.3010 SEVENTY </s> -0.3010
-0.3010 SIX </s> -0.3010
-0.3010 SIXTEEN </s> -0.3010
-0.3010 SIXTY </s> -0.3010
-0.3010 SQUARE ROOT 0.0000
-0.3010 STEPS </s> -0.3010
-0.6021 STOP </s> -0.3010
-0.6021 STOP LISTENING 0.0000
-0.3010 TAYLOR </s> -0.3010
-0.3010 TEN </s> -0.3010
-1.2041 THE CALCULATOR 0.0000
-0.7270 THE NEWS 0.0000
-0.9031 THE TIME 0.0000
-0.9031 THE WEATHER 0.0000
-0.3010 THIRTEEN </s> -0.3010
-0.3010 THIRTY </s> -0.3010
-0.3010 THREE </s> -0.3010
-0.3010 TIME </s> -0.3010
-0.3010 TIMER </s> -0.3010
-0.3010 TIMES </s> -0.3010
-0.3010 TWELVE </s> -0.3010
-0.3010 TWENTY </s> -0.3010
-0.3010 TWO </s> -0.3010
-0.3010 UNTIL </s> -0.3010
-0.3010 WEATHER </s> -0.3010
-0.3010 WHAT IS -0.1461
-0.3010 WHATS HAPPENING 0.0000
-0.7782 WHEN DOES 0.0000
-0.4771 WHEN IS -0.2041
-0.3010 WILLIAMS </s> -0.3010
-1.1461 YOU </s> -0.3010
-1.1461 YOU FLIP -0.1761
-0.6690 YOU GIVE 0.0000
-1.1461 YOU KNOW 0.0000
-1.1461 YOU SET -0.1249

\3-grams:
-0.3010 <s> BRIEF ME
-0.3010 <s> CALCULATOR </s>
-0.3010 <s> CAN YOU
-0.3010 <s> CLOSE </s>
-0.3010 <s> DIVIDED BY
-0.3010 <s> DO YOU
-0.3010 <s> EIGHT </s>
-0.3010 <s> EIGHTEEN </s>
-0.3010 <s> EIGHTY </s>
-0.3010 <s> ELEVEN </s>
-0.3010 <s> ERLE </s>
-0.3010 <s> FIFTEEN </s>
-0.3010 <s> FIFTY </s>
-0.3010 <s> FIVE </s>
-0.3010 <s> FLIP A
-0.3010 <s> FORTY </s>
-0.3010 <s> FOUR </s>
-0.3010 <s> FOURTEEN </s>
-0.3010 <s> GET </s>
-0.3010 <s> GIVE ME
-0.3010 <s> HELLO </s>
-0.3010 <s> HEY LEHIGH
-0.3010 <s> HOW ARE
-0.3010 <s> HUNDRED </s>
-0.3010 <s> MINUS </s>
-0.3010 <s> MONTELLA </s>
-0.3010 <s> MORE </s>
-0.3010 <s> NEXT HEADLINE
-0.3010 <s> NINE </s>
-0.3010 <s> NINETEEN </s>
-0.3010 <s> NINETY </s>
-0.3010 <s> OFFICE HOURS
-0.3010 <s> ONE </s>
-0.7782 <s> OPEN </s>
-0.7782 <s> OPEN THE
-0.7782 <s> OPEN UNTIL
-0.3010 <s> PACKARD </s>
-0.3010 <s> PLUS </s>
-0.6021 <s> SET A
-0.6021 <s> SET ME
-0.3010 <s> SEVEN </s>
-0.3010 <s> SEVENTEEN </s>
-0.3010 <s> SEVENTY </s>
-0.3010 <s> SIX </s>
-0.3010 <s> SIXTEEN </s>
-0.3010 <s> SIXTY </s>
-0.3010 <s> SQUARE ROOT
-0.3010 <s> STEPS </s>
-0.6021 <s> STOP </s>
-0.6021 <s> STOP LISTENING
-0.3010 <s> TAYLOR </s>
-0.3010 <s> TEN </s>
-0.3010 <s> THIRTEEN </s>
-0.3010 <s> THIRTY </s>
-0.3010 <s> THREE </s>
-0.3010 <s> TIMES </s>
-0.3010 <s> TWELVE </s>
-0.3010 <s> TWENTY </s>
-0.3010 <s> TWO </s>
-0.3010 <s> WHAT IS
-0.3010 <s> WHATS HAPPENING
-0.7782 <s> WHEN DOES
-0.4771 <s> WHEN IS
-0.3010 <s> WILLIAMS </s>
-0.3010 A COIN </s>
-0.3010 A RANDOM NUMBER
-0.3010 A TIMER </s>
-0.3010 ARE YOU </s>
-0.3010 BRIEF ME THE
-1.0000 CAN YOU FLIP
-0.5229 CAN YOU GIVE
-1.0000 CAN YOU SET
-0.3010 DIVIDED BY </s>
-0.3010 DO YOU KNOW
-0.3010 FLIP A COIN
-0.3010 FLIP ME A
-0.6021 GIVE ME A
-0.6021 GIVE ME THE
-0.3010 HAPPENING IN THE
-0.3010 HEY LEHIGH </s>
-0.3010 HOW ARE YOU
-0.3010 IN THE NEWS
-0.3010 IS PROFESSOR </s>
-0.7782 IS THE NEWS
-0.7782 IS THE TIME
-0.7782 IS THE WEATHER
-1.0000 ME A COIN
-0.6990 ME A RANDOM
-0.6990 ME A TIMER
-0.7782 ME THE NEWS
-0.7782 ME THE TIME
-0.7782 ME THE WEATHER
-0.3010 NEXT HEADLINE </s>
-0.3010 OFFICE HOURS </s>
-0.3010 OPEN THE CALCULATOR
-0.3010 OPEN UNTIL </s>
-0.3010 RANDOM NUMBER </s>
-0.3010 SET A TIMER
-0.3010 SET ME A
-0.3010 SQUARE ROOT </s>
-0.3010 STOP LISTENING </s>
-0.3010 THE CALCULATOR </s>
-0.3010 THE NEWS </s>
-0.3010 THE TIME </s>
-0.3010 THE WEATHER </s>
-0.3010 WHAT IS THE
-0.3010 WHATS HAPPENING IN
-0.3010 WHEN DOES </s>
-0.6021 WHEN IS </s>
-0.6021 WHEN IS PROFESSOR
-0.3010 YOU FLIP ME
-0.3010 YOU GIVE ME
-0.3010 YOU KNOW </s>
-0.3010 YOU SET ME

\end\
